digraph Tree {
node [shape=box] ;
0 [label="outlook <= 0.5\nmse = 134.633\nsamples = 14\nvalue = 41.714"] ;
1 [label="temp <= 1.5\nmse = 57.688\nsamples = 4\nvalue = 49.25"] ;
0 -> 1 [labeldistance=2.5, labelangle=45, headlabel="True"] ;
2 [label="humidity <= 0.5\nmse = 4.667\nsamples = 3\nvalue = 45.0"] ;
1 -> 2 ;
3 [label="mse = 0.0\nsamples = 1\nvalue = 48.0"] ;
2 -> 3 ;
4 [label="temp <= 0.5\nmse = 0.25\nsamples = 2\nvalue = 43.5"] ;
2 -> 4 ;
5 [label="mse = 0.0\nsamples = 1\nvalue = 43.0"] ;
4 -> 5 ;
6 [label="mse = 0.0\nsamples = 1\nvalue = 44.0"] ;
4 -> 6 ;
7 [label="mse = 0.0\nsamples = 1\nvalue = 62.0"] ;
1 -> 7 ;
8 [label="humidity <= 0.5\nmse = 133.61\nsamples = 10\nvalue = 38.7"] ;
0 -> 8 [labeldistance=2.5, labelangle=-45, headlabel="False"] ;
9 [label="temp <= 1.5\nmse = 48.64\nsamples = 5\nvalue = 33.6"] ;
8 -> 9 ;
10 [label="windy <= 0.5\nmse = 4.0\nsamples = 2\nvalue = 28.0"] ;
9 -> 10 ;
11 [label="mse = 0.0\nsamples = 1\nvalue = 26.0"] ;
10 -> 11 ;
12 [label="mse = 0.0\nsamples = 1\nvalue = 30.0"] ;
10 -> 12 ;
13 [label="windy <= 0.5\nmse = 43.556\nsamples = 3\nvalue = 37.333"] ;
9 -> 13 ;
14 [label="outlook <= 1.5\nmse = 25.0\nsamples = 2\nvalue = 41.0"] ;
13 -> 14 ;
15 [label="mse = 0.0\nsamples = 1\nvalue = 46.0"] ;
14 -> 15 ;
16 [label="mse = 0.0\nsamples = 1\nvalue = 36.0"] ;
14 -> 16 ;
17 [label="mse = 0.0\nsamples = 1\nvalue = 30.0"] ;
13 -> 17 ;
18 [label="windy <= 0.5\nmse = 166.56\nsamples = 5\nvalue = 43.8"] ;
8 -> 18 ;
19 [label="outlook <= 1.5\nmse = 96.889\nsamples = 3\nvalue = 49.333"] ;
18 -> 19 ;
20 [label="temp <= 1.0\nmse = 49.0\nsamples = 2\nvalue = 55.0"] ;
19 -> 20 ;
21 [label="mse = 0.0\nsamples = 1\nvalue = 62.0"] ;
20 -> 21 ;
22 [label="mse = 0.0\nsamples = 1\nvalue = 48.0"] ;
20 -> 22 ;
23 [label="mse = 0.0\nsamples = 1\nvalue = 38.0"] ;
19 -> 23 ;
24 [label="outlook <= 1.5\nmse = 156.25\nsamples = 2\nvalue = 35.5"] ;
18 -> 24 ;
25 [label="mse = 0.0\nsamples = 1\nvalue = 23.0"] ;
24 -> 25 ;
26 [label="mse = 0.0\nsamples = 1\nvalue = 48.0"] ;
24 -> 26 ;
}